Language model created by QuickLM on Fri May 10 22:17:44 EDT 2013
Copyright (c) 1996-2010 Carnegie Mellon University and Alexander I. Rudnicky

The model is in standard ARPA format, designed by Doug Paul while he was at MITRE.

The code that was used to produce this language model is available in Open Source.
Please visit http://www.speech.cs.cmu.edu/tools/ for more information

The (fixed) discount mass is 0.5. The backoffs are computed using the ratio method.
This model based on a corpus of 15 sentences and 17 words

\data\
ngram 1=17
ngram 2=30
ngram 3=15

\1-grams:
-0.7782 </s> -0.3010
-0.7782 <s> -0.2218
-1.9542 A -0.2218
-1.9542 AH -0.2218
-1.9542 AIR -0.2218
-1.9542 BOOTS -0.2218
-1.9542 DOOR -0.2218
-1.9542 HAT -0.2218
-1.9542 ON -0.2218
-1.9542 OOR -0.2218
-1.9542 OOTS -0.2218
-1.9542 OPEN -0.2218
-1.9542 PUT -0.2218
-1.9542 THE -0.2218
-1.9542 UT -0.2218
-1.9542 WEAR -0.2218

\2-grams:
-1.4771 <s> A 0.0000
-1.4771 <s> AH 0.0000
-1.4771 <s> AIR 0.0000
-1.4771 <s> BOOTS 0.0000
-1.4771 <s> DOOR 0.0000
-1.4771 <s> HAT 0.0000
-1.4771 <s> ON 0.0000
-1.4771 <s> OOR 0.0000
-1.4771 <s> OOTS 0.0000
-1.4771 <s> OPEN 0.0000
-1.4771 <s> PUT 0.0000
-1.4771 <s> THE 0.0000
-1.4771 <s> UT 0.0000
-1.4771 <s> WEAR 0.0000
-0.3010 A </s> -0.3010
-0.3010 AH </s> -0.3010
-0.3010 AIR </s> -0.3010
-0.3010 BOOTS </s> -0.3010
-0.3010 DOOR </s> -0.3010
-0.3010 HAT </s> -0.3010
-0.3010 ON </s> -0.3010
-0.3010 OOR </s> -0.3010
-0.3010 OOTS </s> -0.3010
-0.3010 OPEN </s> -0.3010
-0.3010 PUT </s> -0.3010
-0.3010 THE </s> -0.3010
-0.3010 UT </s> -0.3010
-0.3010 WEAR </s> -0.3010

\3-grams:
-0.3010 <s> A </s>
-0.3010 <s> AH </s>
-0.3010 <s> AIR </s>
-0.3010 <s> BOOTS </s>
-0.3010 <s> DOOR </s>
-0.3010 <s> HAT </s>
-0.3010 <s> ON </s>
-0.3010 <s> OOR </s>
-0.3010 <s> OOTS </s>
-0.3010 <s> OPEN </s>
-0.3010 <s> PUT </s>
-0.3010 <s> THE </s>
-0.3010 <s> UT </s>
-0.3010 <s> WEAR </s>

\end\
