Language model created by QuickLM on Mon May 13 01:01:32 EDT 2013
Copyright (c) 1996-2010 Carnegie Mellon University and Alexander I. Rudnicky

The model is in standard ARPA format, designed by Doug Paul while he was at MITRE.

The code that was used to produce this language model is available in Open Source.
Please visit http://www.speech.cs.cmu.edu/tools/ for more information

The (fixed) discount mass is 0.5. The backoffs are computed using the ratio method.
This model based on a corpus of 12 sentences and 17 words

\data\
ngram 1=17
ngram 2=27
ngram 3=18

\1-grams:
-0.8451 </s> -0.3010
-0.8451 <s> -0.2341
-1.6232 A -0.2341
-1.9243 AH -0.2341
-1.9243 AIR -0.2906
-1.9243 BOOTS -0.2341
-1.9243 DOOR -0.2341
-1.9243 HAT -0.2341
-1.6232 ON -0.2341
-1.9243 OOR -0.2341
-1.9243 OOTS -0.2341
-1.9243 OPEN -0.2906
-1.9243 OVEN -0.2906
-1.9243 PUT -0.2906
-1.6232 THE -0.2341
-1.9243 UT -0.2906
-1.9243 WEAR -0.2906

\2-grams:
-1.3802 <s> AH 0.0000
-1.3802 <s> AIR 0.0000
-1.3802 <s> BOOTS 0.0000
-1.3802 <s> DOOR 0.0000
-1.3802 <s> HAT 0.0000
-1.3802 <s> OOR 0.0000
-1.3802 <s> OOTS 0.0000
-1.3802 <s> OPEN 0.0000
-1.3802 <s> OVEN 0.0000
-1.3802 <s> PUT 0.0000
-1.3802 <s> UT 0.0000
-1.3802 <s> WEAR 0.0000
-0.3010 A </s> -0.3010
-0.3010 AH </s> -0.3010
-0.3010 AIR A 0.0000
-0.3010 BOOTS </s> -0.3010
-0.3010 DOOR </s> -0.3010
-0.3010 HAT </s> -0.3010
-0.3010 ON </s> -0.3010
-0.3010 OOR </s> -0.3010
-0.3010 OOTS </s> -0.3010
-0.3010 OPEN THE 0.0000
-0.3010 OVEN THE 0.0000
-0.3010 PUT ON 0.0000
-0.3010 THE </s> -0.3010
-0.3010 UT ON 0.0000
-0.3010 WEAR A 0.0000

\3-grams:
-0.3010 <s> AH </s>
-0.3010 <s> AIR A
-0.3010 <s> BOOTS </s>
-0.3010 <s> DOOR </s>
-0.3010 <s> HAT </s>
-0.3010 <s> OOR </s>
-0.3010 <s> OOTS </s>
-0.3010 <s> OPEN THE
-0.3010 <s> OVEN THE
-0.3010 <s> PUT ON
-0.3010 <s> UT ON
-0.3010 <s> WEAR A
-0.3010 AIR A </s>
-0.3010 OPEN THE </s>
-0.3010 OVEN THE </s>
-0.3010 PUT ON </s>
-0.3010 UT ON </s>
-0.3010 WEAR A </s>

\end\
