Language model created by QuickLM on Fri May 10 22:27:47 EDT 2013
Copyright (c) 1996-2010 Carnegie Mellon University and Alexander I. Rudnicky

The model is in standard ARPA format, designed by Doug Paul while he was at MITRE.

The code that was used to produce this language model is available in Open Source.
Please visit http://www.speech.cs.cmu.edu/tools/ for more information

The (fixed) discount mass is 0.5. The backoffs are computed using the ratio method.
This model based on a corpus of 14 sentences and 16 words

\data\
ngram 1=16
ngram 2=28
ngram 3=14

\1-grams:
-0.7782 </s> -0.3010
-0.7782 <s> -0.2218
-1.9243 A -0.2218
-1.9243 BALLOON -0.2218
-1.9243 BLOW -0.2218
-1.9243 BRIDGE -0.2218
-1.9243 CROSS -0.2218
-1.9243 HALLOON -0.2218
-1.9243 HEVER -0.2218
-1.9243 HLOW -0.2218
-1.9243 HRIDGE -0.2218
-1.9243 HROSS -0.2218
-1.9243 HULL -0.2218
-1.9243 LEVER -0.2218
-1.9243 PULL -0.2218
-1.9243 THE -0.2218

\2-grams:
-1.4472 <s> A 0.0000
-1.4472 <s> BALLOON 0.0000
-1.4472 <s> BLOW 0.0000
-1.4472 <s> BRIDGE 0.0000
-1.4472 <s> CROSS 0.0000
-1.4472 <s> HALLOON 0.0000
-1.4472 <s> HEVER 0.0000
-1.4472 <s> HLOW 0.0000
-1.4472 <s> HRIDGE 0.0000
-1.4472 <s> HROSS 0.0000
-1.4472 <s> HULL 0.0000
-1.4472 <s> LEVER 0.0000
-1.4472 <s> PULL 0.0000
-1.4472 <s> THE 0.0000
-0.3010 A </s> -0.3010
-0.3010 BALLOON </s> -0.3010
-0.3010 BLOW </s> -0.3010
-0.3010 BRIDGE </s> -0.3010
-0.3010 CROSS </s> -0.3010
-0.3010 HALLOON </s> -0.3010
-0.3010 HEVER </s> -0.3010
-0.3010 HLOW </s> -0.3010
-0.3010 HRIDGE </s> -0.3010
-0.3010 HROSS </s> -0.3010
-0.3010 HULL </s> -0.3010
-0.3010 LEVER </s> -0.3010
-0.3010 PULL </s> -0.3010
-0.3010 THE </s> -0.3010

\3-grams:
-0.3010 <s> A </s>
-0.3010 <s> BALLOON </s>
-0.3010 <s> BLOW </s>
-0.3010 <s> BRIDGE </s>
-0.3010 <s> CROSS </s>
-0.3010 <s> HALLOON </s>
-0.3010 <s> HEVER </s>
-0.3010 <s> HLOW </s>
-0.3010 <s> HRIDGE </s>
-0.3010 <s> HROSS </s>
-0.3010 <s> HULL </s>
-0.3010 <s> LEVER </s>
-0.3010 <s> PULL </s>
-0.3010 <s> THE </s>

\end\
