Language model created by QuickLM on Mon May  7 15:53:08 EDT 2012
Copyright (c) 1996-2010 Carnegie Mellon University and Alexander I. Rudnicky

The model is in standard ARPA format, designed by Doug Paul while he was at MITRE.

The code that was used to produce this language model is available in Open Source.
Please visit http://www.speech.cs.cmu.edu/tools/ for more information

The (fixed) discount mass is 0.5. The backoffs are computed using the ratio method.
This model based on a corpus of 13 sentences and 43 words

\data\
ngram 1=43
ngram 2=62
ngram 3=57

\1-grams:
-1.1648 </s> -0.3010
-1.1648 <s> -0.2678
-1.9777 AT -0.2871
-2.2788 BETS -0.2702
-2.2788 BETSH -0.2702
-2.2788 BREAKFASHT -0.2702
-2.2788 BREAKFAST -0.2702
-2.2788 CATS -0.2964
-2.2788 CATSH -0.2964
-2.2788 DON'T -0.2964
-2.2788 DONT -0.2964
-1.9777 DRINK -0.2964
-1.9777 EAT -0.2964
-2.2788 FITS -0.2964
-2.2788 FITSH -0.2964
-1.9777 FOR -0.2964
-1.9777 FORGET -0.2918
-2.2788 GATES -0.2702
-2.2788 GATESH -0.2702
-1.9777 HE -0.2964
-1.9777 I -0.2964
-1.8016 IF -0.2847
-1.9777 IT -0.2702
-2.2788 LEFT -0.2941
-2.2788 LIGHTS -0.2702
-2.2788 LIGHTSH -0.2702
-1.9777 LIKE -0.2918
-2.2788 MEAT -0.2987
-1.9777 MILK -0.2702
-2.2788 OATS -0.2964
-2.2788 OATSH -0.2964
-1.8016 OUT -0.2553
-1.9777 PLACE -0.2964
-2.2788 ROTS -0.2941
-1.9777 SHOE -0.2964
-2.2788 SHTOPPED -0.2964
-2.2788 STOPPED -0.2964
-1.5006 THE -0.2871
-1.6767 TO -0.2918
-1.9777 TURN -0.2941
-1.9777 WAS -0.2964
-1.9777 WEAR -0.2964
-1.9777 YOUR -0.2964

\2-grams:
-1.4150 <s> CATS 0.0000
-1.4150 <s> CATSH 0.0000
-1.4150 <s> DON'T 0.0000
-1.4150 <s> DONT 0.0000
-1.1139 <s> HE 0.0000
-1.1139 <s> I 0.0000
-1.1139 <s> IF -0.1249
-1.4150 <s> MEAT 0.0000
-1.1139 <s> PLACE 0.0000
-0.3010 AT THE -0.2218
-0.3010 BETS </s> -0.3010
-0.3010 BETSH </s> -0.3010
-0.3010 BREAKFASHT </s> -0.3010
-0.3010 BREAKFAST </s> -0.3010
-0.3010 CATS LIKE 0.0000
-0.3010 CATSH LIKE 0.0000
-0.3010 DON'T FORGET 0.0000
-0.3010 DONT FORGET 0.0000
-0.3010 DRINK MILK 0.0000
-0.6021 EAT OATS 0.0000
-0.6021 EAT OATSH 0.0000
-0.3010 FITS WEAR 0.0000
-0.3010 FITSH WEAR 0.0000
-0.6021 FOR BREAKFASHT 0.0000
-0.6021 FOR BREAKFAST 0.0000
-0.3010 FORGET TO -0.1761
-0.3010 GATES </s> -0.3010
-0.3010 GATESH </s> -0.3010
-0.3010 HE WAS 0.0000
-0.3010 I EAT 0.0000
-0.7782 IF LEFT 0.0000
-0.4771 IF THE -0.2218
-0.3010 IT </s> -0.3010
-0.3010 LEFT OUT -0.2218
-0.3010 LIGHTS </s> -0.3010
-0.3010 LIGHTSH </s> -0.3010
-0.3010 LIKE TO -0.1761
-0.3010 MEAT ROTS 0.0000
-0.3010 MILK </s> -0.3010
-0.3010 OATS FOR -0.1761
-0.3010 OATSH FOR -0.1761
-0.7782 OUT </s> -0.3010
-0.4771 OUT THE -0.2218
-0.3010 PLACE YOUR 0.0000
-0.3010 ROTS IF -0.2218
-0.6021 SHOE FITS 0.0000
-0.6021 SHOE FITSH 0.0000
-0.3010 SHTOPPED AT 0.0000
-0.3010 STOPPED AT 0.0000
-1.0792 THE GATES 0.0000
-1.0792 THE GATESH 0.0000
-1.0792 THE LIGHTS 0.0000
-1.0792 THE LIGHTSH 0.0000
-0.7782 THE SHOE 0.0000
-0.6021 TO DRINK 0.0000
-0.6021 TO TURN 0.0000
-0.3010 TURN OUT -0.1249
-0.6021 WAS SHTOPPED 0.0000
-0.6021 WAS STOPPED 0.0000
-0.3010 WEAR IT 0.0000
-0.6021 YOUR BETS 0.0000
-0.6021 YOUR BETSH 0.0000

\3-grams:
-0.3010 <s> CATS LIKE
-0.3010 <s> CATSH LIKE
-0.3010 <s> DON'T FORGET
-0.3010 <s> DONT FORGET
-0.3010 <s> HE WAS
-0.3010 <s> I EAT
-0.3010 <s> IF THE
-0.3010 <s> MEAT ROTS
-0.3010 <s> PLACE YOUR
-0.6021 AT THE GATES
-0.6021 AT THE GATESH
-0.3010 CATS LIKE TO
-0.3010 CATSH LIKE TO
-0.3010 DON'T FORGET TO
-0.3010 DONT FORGET TO
-0.3010 DRINK MILK </s>
-0.3010 EAT OATS FOR
-0.3010 EAT OATSH FOR
-0.3010 FITS WEAR IT
-0.3010 FITSH WEAR IT
-0.3010 FOR BREAKFASHT </s>
-0.3010 FOR BREAKFAST </s>
-0.3010 FORGET TO TURN
-0.6021 HE WAS SHTOPPED
-0.6021 HE WAS STOPPED
-0.6021 I EAT OATS
-0.6021 I EAT OATSH
-0.3010 IF LEFT OUT
-0.3010 IF THE SHOE
-0.3010 LEFT OUT </s>
-0.3010 LIKE TO DRINK
-0.3010 MEAT ROTS IF
-0.3010 OATS FOR BREAKFAST
-0.3010 OATSH FOR BREAKFASHT
-0.6021 OUT THE LIGHTS
-0.6021 OUT THE LIGHTSH
-0.6021 PLACE YOUR BETS
-0.6021 PLACE YOUR BETSH
-0.3010 ROTS IF LEFT
-0.3010 SHOE FITS WEAR
-0.3010 SHOE FITSH WEAR
-0.3010 SHTOPPED AT THE
-0.3010 STOPPED AT THE
-0.3010 THE GATES </s>
-0.3010 THE GATESH </s>
-0.3010 THE LIGHTS </s>
-0.3010 THE LIGHTSH </s>
-0.6021 THE SHOE FITS
-0.6021 THE SHOE FITSH
-0.3010 TO DRINK MILK
-0.3010 TO TURN OUT
-0.3010 TURN OUT THE
-0.3010 WAS SHTOPPED AT
-0.3010 WAS STOPPED AT
-0.3010 WEAR IT </s>
-0.3010 YOUR BETS </s>
-0.3010 YOUR BETSH </s>

\end\
